tree
version=v4
num_class=1
num_tree_per_iteration=1
label_index=0
max_feature_idx=27
objective=tweedie
feature_names=store_id product_key wday month year event_name_1 event_type_1 event_name_2 event_type_2 snap_CA sell_price lag_7 lag_14 lag_28 lag_45 lag_90 lag_365 rolling_mean_1_7 rolling_std_1_7 rolling_mean_7_14 rolling_std_7_14 rolling_mean_14_28 rolling_std_14_28 rolling_mean_28_45 rolling_std_28_45 rolling_mean_45_90 rolling_std_45_90 pct_change_price
feature_infos=[0:3] [1:3049] [1:7] [1:12] [2013:2015] [0:30] [0:4] [0:4] [0:2] [0:1] [0.01:30.98] [0:613] [0:310] [0:554] [0:504] [0:316] [0:328] [0:515.16999999999996] [0:198.69999999999999] [0:602.86000000000001] [0:224.40000000000001] [0:422] [0:135.69] [0:467.88] [0:181.15000000000001] [0:231.16] [0:140.06999999999999] [-0.70061728395061729:2.3793103448275863]
tree_sizes=3522 3594 3599 3606 3617 3619 3594 3644 3644 3665

Tree=0
num_leaves=31
num_cat=0
split_feature=17 17 17 21 21 21 17 19 17 21 17 19 17 17 17 25 2 2 17 2 2 2 2 23 2 23 2 23 25 2
split_gain=2.29025e+07 3.50402e+06 3.49187e+06 686938 556727 469059 443968 118051 114787 112193 109255 94540.5 72641.2 69577.5 64000.5 47288.9 46758.8 39517.4 34912.6 31022.8 30278 29730 28977.1 27522.3 26154 25311.5 24893.4 24203.5 18604.4 18274.4
threshold=4.0850000000000009 12.915000000000001 1.0850000000000002 2.2500000000000004 0.46500000000000002 6.7500000000000009 27.415000000000003 1.6400000000000003 1.0000000180025095e-35 3.5350000000000006 6.2500000000000009 1.0700000000000001 8.7500000000000018 50.165000000000006 18.415000000000003 1.3900000000000001 2.5000000000000004 2.5000000000000004 1.0000000180025095e-35 2.5000000000000004 2.5000000000000004 2.5000000000000004 2.5000000000000004 0.79000000000000015 2.5000000000000004 4.5000000000000009 2.5000000000000004 1.3200000000000003 0.45500000000000002 2.5000000000000004
decision_type=2 2 2 2 2 2 2 2 2 2 2 2 2 2 2 2 2 2 2 2 2 2 2 2 2 2 2 2 2 2
left_child=2 5 4 7 8 10 14 15 -1 17 16 18 22 -8 26 -4 -2 -5 -6 -11 -9 -14 -7 -20 -12 -18 -3 -13 -10 -16
right_child=1 6 3 9 11 12 13 20 28 19 24 27 21 -15 29 -17 25 -19 23 -21 -22 -23 -24 -25 -26 -27 -28 -29 -30 -31
leaf_value=0.20051464428696786 0.37760173044106649 0.53502486706523222 0.24523653687625982 0.31871293723015437 0.2112882897537372 0.44269615638756837 0.60800455692483246 0.29319968058729828 0.21239222167880106 0.35789389859535098 0.42490561355742573 0.24127851025259806 0.48966096080823912 0.67828311069938074 0.58356763641950415 0.2663700190787317 0.32901528377758965 0.29139877891636867 0.22535343618174797 0.32504313551834596 0.27029083939461973 0.44558145414919498 0.40288439123900999 0.23893790434979281 0.38473253885999548 0.35893284872344405 0.49056582290230155 0.25987611297400731 0.22341266772737575 0.54059809233737177
leaf_weight=3820707.6308972836 119118.4658728838 45663.68117082119 907780.36891400814 189274.43589305878 285470.4782794714 67696.961550712585 96394.933153510094 202733.05505943298 1673546.5742605925 105983.75582027435 56334.052717089653 449832.4549472332 55471.721929192543 55491.819994926453 36313.10195851326 373657.16075599194 183410.42215549946 440838.52552521229 1033361.9012023211 223256.68764019012 499828.48196792603 123232.01219010353 140699.56274521351 583328.74447345734 144269.90736079216 115041.81796216965 101399.90613555908 286286.18342471123 496602.26523149014 77662.205940246582
leaf_count=3363408 71277 15879 734493 131002 246406 33492 22320 148552 1441593 66743 29466 366798 23296 6640 9821 289757 123935 324287 868814 152272 384478 60401 78527 477826 84689 72257 42438 224964 419060 26317
internal_value=0.25344 0.443085 0.230199 0.277227 0.214159 0.392714 0.565713 0.26043 0.205731 0.311963 0.365687 0.233296 0.435874 0.633681 0.526166 0.251399 0.351118 0.299603 0.227408 0.335618 0.276901 0.459264 0.415817 0.230255 0.396014 0.340547 0.50437 0.248511 0.214914 0.554288
internal_weight=1.29907e+07 1.4182e+06 1.15725e+07 2.94335e+06 8.62914e+06 1.00527e+06 412926 1.984e+06 5.99086e+06 959353 618175 2.63828e+06 387100 151887 261039 1.28144e+06 417571 630113 1.90216e+06 329240 702562 178704 208397 1.61669e+06 200604 298452 147064 736119 2.17015e+06 113975
internal_count=10341208 700755 9640453 2231584 7408869 577340 123415 1557280 5224061 674304 381624 2184808 195716 28960 94455 1024250 267469 455289 1593046 219015 533030 83697 112019 1346640 114155 196192 58317 591762 1860653 36138
is_linear=0
shrinkage=1


Tree=1
num_leaves=31
num_cat=0
split_feature=17 17 17 21 17 21 23 23 17 25 17 17 17 19 21 21 19 2 17 2 2 2 2 23 2 17 21 2 2 2
split_gain=1.93217e+07 3.2271e+06 2.93864e+06 619263 511396 433612 410634 110913 105272 102671 86876.2 83526.8 81282.7 77596.9 55719.4 44276.6 42702 32087.2 28641.7 25350.7 22882.4 22718.1 21980.2 21960.1 21955.3 21348.5 20300.4 19434.2 18220.8 17525.9
threshold=3.7500000000000004 12.250000000000002 0.91500000000000015 1.9650000000000001 28.750000000000004 0.39500000000000007 6.4400000000000004 3.0900000000000003 6.0850000000000009 1.4300000000000002 1.0000000180025095e-35 55.585000000000008 17.415000000000003 0.93000000000000005 9.1750000000000025 4.1750000000000007 1.3600000000000001 2.5000000000000004 1.0000000180025095e-35 2.5000000000000004 2.5000000000000004 2.5000000000000004 2.5000000000000004 0.7350000000000001 2.5000000000000004 8.2500000000000018 1.2500000000000002 2.5000000000000004 2.5000000000000004 2.5000000000000004
decision_type=2 2 2 2 2 2 2 2 2 2 2 2 2 2 2 2 2 2 2 2 2 2 2 2 2 2 2 2 2 2
left_child=2 6 5 9 12 10 8 17 15 16 -1 -6 22 18 21 27 -4 -5 -7 -9 -14 -8 -3 -20 -11 -10 -15 -2 -17 -16
right_child=1 4 3 7 11 13 14 19 25 24 -12 -13 20 26 29 28 -18 -19 23 -21 -22 -23 -24 -25 -26 -27 -28 -29 -30 -31
leaf_value=-0.052966345297582464 0.088683146562586856 0.23693788038261082 -0.012548656854970398 0.049805037627272869 0.32003439735328071 -0.042368504317983377 0.16105198774318025 0.084798337015753858 0.11112348253075402 0.030782657650454289 -0.039339636370182646 0.40005630965878791 0.2880108093260012 -0.016115057142319211 0.1991275761826867 0.11858119451610311 0.0060788503135168395 0.027499970311611579 -0.030322404708951312 0.05777420169791854 0.24702639752518754 0.12926609514939666 0.19788945249823042 -0.017265393752110416 0.01058193697457473 0.1442936237403831 0.00098246416826316095 0.060293805486904696 0.088010314581745019 0.16504074180611911
leaf_weight=3573795.2448137999 83290.41555929184 52230.879717707634 1088539.4884274006 229157.06047546864 100441.38320565224 329841.81700992584 82897.378097653389 130522.50996565819 154578.50111758709 188064.8065251112 1738717.3522398472 48286.840232491493 49698.128729224205 478994.73978126049 56548.511569738388 69671.349889755249 428886.63876950741 544000.35766065121 986356.44642698765 258952.08914339542 108211.43621969223 174638.43986618519 116244.952678442 478117.15471363068 472317.72897017002 70691.408959388733 272310.68711733818 218234.49621963501 162242.30096375942 113189.23909592628
leaf_count=3299774 49573 17132 898246 156203 20825 296417 38178 80091 84337 137540 1546383 5242 12528 398803 22326 37675 334654 397411 855692 173781 33758 90710 45573 400010 363753 34650 216871 143737 97703 51632
internal_value=-7.22411e-05 0.159061 -0.0236767 0.0156077 0.269169 -0.0403762 0.114951 0.0450719 0.0928723 -0.000121866 -0.0485065 0.346015 0.234152 -0.0234088 0.154156 0.0807691 -0.00728376 0.034111 -0.0290576 0.0668307 0.259925 0.139498 0.209995 -0.0260596 0.0163347 0.121533 -0.00991806 0.0681358 0.0971944 0.176397
internal_weight=1.28597e+07 1.6611e+06 1.11986e+07 3.34044e+06 475114 7.85813e+06 1.18598e+06 1.16263e+06 758708 2.17781e+06 5.31251e+06 148728 326385 2.54562e+06 427274 533439 1.51743e+06 773157 1.79432e+06 389475 157910 257536 168476 1.46447e+06 660383 225270 751305 301525 231914 169738
internal_count=10341208 785579 9555629 2541679 135058 7013950 650521 807486 447675 1734193 4846157 26067 108991 2167793 202846 328688 1232900 553614 1552119 253872 46286 128888 62705 1255702 501293 118987 615674 193310 135378 73958
is_linear=0
shrinkage=0.05


Tree=2
num_leaves=31
num_cat=0
split_feature=17 17 21 17 17 21 19 17 17 17 23 17 21 23 19 25 17 23 23 11 2 2 2 17 23 2 2 2 17 2
split_gain=1.64326e+07 2.9985e+06 2.34269e+06 536532 413738 393952 365798 121862 84162.9 82011.9 78599.9 78345 67064.1 62155.5 55985.2 43298.6 42873.5 38142.1 35254.1 26056.2 22301.1 21527.2 21507.6 21055.1 19619 18151.6 17793.3 17594.1 16894.6 15495.1
threshold=3.2500000000000004 11.415000000000001 0.89500000000000013 25.585000000000004 0.25000000000000006 5.535000000000001 1.9300000000000004 59.500000000000007 1.2500000000000002 1.2500000000000002 2.6200000000000006 5.2500000000000009 16.250000000000004 7.9700000000000015 1.0000000180025095e-35 0.6100000000000001 1.0000000180025095e-35 1.8500000000000003 3.6800000000000002 37.500000000000007 2.5000000000000004 2.5000000000000004 2.5000000000000004 2.0850000000000004 1.2650000000000003 2.5000000000000004 2.5000000000000004 2.5000000000000004 98.500000000000014 2.5000000000000004
decision_type=2 2 2 2 2 2 2 2 2 2 2 2 2 2 2 2 2 2 2 2 2 2 2 2 2 2 2 2 2 2
left_child=2 5 4 12 14 11 9 19 15 16 21 18 25 20 -1 -6 -4 -11 29 -5 -7 -8 -12 -10 -18 -3 -13 -15 -9 -2
right_child=1 3 6 7 8 13 10 28 23 17 22 26 -14 27 -16 -17 24 -19 -20 -21 -22 -23 -24 -25 -26 -27 -28 -29 -30 -31
leaf_value=-0.053165315549236362 0.068618749483166624 0.1986887931550663 -0.038161931728908111 0.25798147978250868 -0.033267568285384484 0.12979246068069233 0.036519691419294738 0.34647235481624045 -0.0089670202253978541 0.0025999355555908366 0.065441741619104377 0.11542995811301411 0.22093424307109114 0.16199869945762038 -0.041048172385644337 -0.019299927854403327 -0.012147590867537956 0.024208131756239842 0.076361077327615226 0.30152265214172458 0.10218967989960218 0.017194014446132333 0.042172020435975392 0.021485973484896607 0.0024025828435279457 0.16798843963808061 0.086229361972883445 0.13379888407908655 0.41103057002757287 0.045556176656687389
leaf_weight=3222666.7867543697 99997.129989743233 68290.916444301605 125424.01335740089 90861.595937728882 1700713.688539505 104965.09510445595 206409.38926172256 29817.614028453827 303147.40251886845 670239.48310685158 150248.55054330826 72389.293583273888 139468.51246511936 83871.359773516655 1353681.8842642307 823496.0914041996 681982.85319495201 293723.02473807335 242963.49260127544 55254.519816994667 241605.98890554905 477331.98532927036 292839.84497189522 69834.643791675568 350867.80703544617 163222.98569309711 186765.81175518036 162432.14332747459 15351.637933492661 268091.61284077168
leaf_count=3114815 59601 20780 114157 19560 1531778 47145 142605 3469 247535 525478 92423 34836 39071 32005 1259519 706552 570906 211767 140911 9445 122569 354462 198152 52919 278130 58769 101613 71682 1035 177519
internal_value=-0.000138989 0.130479 -0.0248109 0.228616 -0.0402206 0.0927645 0.0106346 0.296636 -0.0254349 -0.00159022 0.0336585 0.071349 0.193544 0.124198 -0.0495811 -0.0287108 -0.010557 0.00918403 0.0615788 0.274447 0.11055 0.0230281 0.0500626 -0.00326521 -0.00720478 0.177044 0.0943859 0.143401 0.368414 0.0518215
internal_weight=1.2748e+07 2.02535e+06 1.07226e+07 562268 7.47354e+06 1.46308e+06 3.24907e+06 191285 2.89719e+06 2.12224e+06 1.12683e+06 870207 370982 592875 4.57635e+06 2.52421e+06 1.15827e+06 963963 611052 146116 346571 683741 443088 372982 1.03285e+06 231514 259155 246304 45169.3 368089
internal_count=10341208 940010 9401198 152129 6913118 787881 2488080 33509 2538784 1700438 787642 514480 118620 273401 4374334 2238330 963193 737245 378031 29005 169714 497067 290575 300454 849036 79549 136449 103687 4504 237120
is_linear=0
shrinkage=0.05


Tree=3
num_leaves=31
num_cat=0
split_feature=17 17 21 17 17 19 21 17 17 25 17 17 21 19 19 17 25 17 13 21 2 2 2 2 2 2 2 17 17 23
split_gain=1.40709e+07 2.61793e+06 1.96277e+06 531339 358392 338050 285731 117318 77878 73043.5 71880.5 64754.5 56616.1 55014.5 54367.6 47051.2 32354.9 29373.3 26547.8 24222.4 23913.5 23329.1 20703.3 20250.3 19153.2 18783.1 17058.2 16550 16474.1 15797.6
threshold=2.9150000000000005 10.415000000000001 0.82500000000000007 31.915000000000003 0.25000000000000006 5.2150000000000007 1.7500000000000002 16.585000000000004 68.750000000000014 3.77 0.41500000000000009 1.0850000000000002 2.8250000000000006 1.0000000180025095e-35 1.2150000000000001 6.9150000000000009 0.57000000000000017 1.0000000180025095e-35 23.500000000000004 12.250000000000002 2.5000000000000004 2.5000000000000004 2.5000000000000004 2.5000000000000004 2.5000000000000004 2.5000000000000004 2.5000000000000004 4.7500000000000009 1.9150000000000003 1.2100000000000002
decision_type=2 2 2 2 2 2 2 2 2 2 2 2 2 2 2 2 2 2 2 2 2 2 2 2 2 2 2 2 2 2
left_child=2 5 4 7 13 9 14 19 22 21 -8 16 20 -1 17 25 -6 -4 -9 -3 -12 -2 -5 -17 -16 -7 -11 -23 -13 -19
right_child=1 3 6 8 11 15 10 18 -10 26 12 28 -14 -15 24 23 -18 29 -20 -21 -22 27 -24 -25 -26 -27 -28 -29 -30 -31
leaf_value=-0.053061763147289498 0.062890453408155869 0.13581499752046164 -0.040491924633572159 0.28959842920008705 -0.033833341594068082 0.10783309607052367 -0.017038785881736285 0.18335863014312356 0.34161655852859196 0.091691171685671202 0.033729568851749929 -0.012900703895015523 0.044611917651515398 -0.040720406301397144 0.015268659513070571 0.13708289450890238 -0.020851064800379432 -0.014107142444798016 0.21816700177373383 0.16479339780671706 0.015048332635747117 0.036882899429673724 0.24201239092939519 0.10949068350888347 -0.00080008955031396186 0.083546580402641679 0.068517571420955145 0.060753831761104195 0.012756764267795352 -0.0010270957817446222
leaf_weight=3064166.0608346462 180605.93583297729 167214.77150344849 86194.029404044151 32946.256496191025 1447660.5747419596 118523.99273645878 94880.785587906837 160738.79098582268 35916.577693939209 112834.08670377731 247732.06166315079 365482.00165200233 362741.37793302536 1280314.1355648041 264050.34908163548 96489.31424343586 717945.42349994183 768953.62244772911 83094.993506669998 126791.77574384212 555281.40026068687 363766.89411795139 74640.148215532303 213923.88704192638 622951.94903588295 242490.24659156799 268099.36271202564 90718.36172747612 75483.695177435875 329867.5552675724
leaf_count=3106370 102450 59117 82566 4507 1349064 52328 80550 41164 3094 54565 167684 305815 231787 1235978 198277 35390 633209 654566 17845 38694 407567 238991 12682 92186 492020 122919 146763 50340 57821 264899
internal_value=-0.00019909 0.109664 -0.0255056 0.192386 -0.0406307 0.076264 0.00604157 0.169578 0.277867 0.0580715 0.0248112 -0.0259733 0.0282174 -0.0494248 -0.00537806 0.103793 -0.0295294 -0.0123852 0.195221 0.148312 0.0208116 0.0476887 0.256585 0.118067 0.00398339 0.09152 0.0753817 0.0416477 -0.00850871 -0.0101805
internal_weight=1.26525e+07 2.3688e+06 1.02837e+07 681343 6.95105e+06 1.68745e+06 3.33265e+06 537840 143503 1.01602e+06 1.26064e+06 2.60657e+06 1.16575e+06 4.34448e+06 2.07202e+06 671427 2.16561e+06 1.18502e+06 243834 294007 803013 635091 107586 310413 887002 361014 380933 454485 440966 1.09882e+06
internal_count=10341208 1073035 9268173 177103 6688257 895932 2579916 156820 20283 593109 887588 2345909 807038 4342348 1692328 302823 1982273 1002031 59009 97811 575251 391781 17189 127576 690297 175247 201328 289331 363636 919465
is_linear=0
shrinkage=0.05


Tree=4
num_leaves=31
num_cat=0
split_feature=17 17 17 17 21 21 21 17 23 25 17 19 17 19 19 23 19 2 2 17 12 19 2 2 2 2 2 17 2 23
split_gain=1.21422e+07 2.15266e+06 1.75821e+06 451652 395248 291577 235971 122429 73721.9 64168.6 61775.6 57805.1 53713.4 43765.7 39418.9 34283.8 27426.7 22741.2 22426.7 21912.1 18945.1 17483.1 16375.9 15059.7 14321.2 14208.9 13998.2 13723.4 12380.7 11483.9
threshold=2.7500000000000004 10.085000000000003 0.58500000000000008 35.415000000000006 1.3950000000000002 4.8950000000000005 0.32500000000000001 20.085000000000004 2.2650000000000006 1.0550000000000004 89.415000000000006 3.7850000000000006 1.0000000180025095e-35 7.2150000000000007 0.64000000000000001 12.910000000000002 0.93000000000000005 2.5000000000000004 2.5000000000000004 4.7500000000000009 52.500000000000007 3.2150000000000003 2.5000000000000004 2.5000000000000004 2.5000000000000004 2.5000000000000004 2.5000000000000004 1.0000000180025095e-35 2.5000000000000004 0.91000000000000003
decision_type=2 2 2 2 2 2 2 2 2 2 2 2 2 2 2 2 2 2 2 2 2 2 2 2 2 2 2 2 2 2
left_child=2 5 6 7 9 11 12 15 17 16 20 19 -1 25 27 26 -4 -6 -9 22 -5 -10 -2 -13 -11 -7 -3 -8 -15 -16
right_child=1 3 4 10 8 13 14 18 21 24 -12 23 -14 28 29 -17 -18 -19 -20 -21 -22 -23 -24 -25 -26 -27 -28 -29 -30 -31
leaf_value=-0.052788756060466173 0.050530394781642597 0.14023298811065862 -0.022123669851878514 0.22006934447030468 0.023218814607082514 0.093374607797890585 -0.042078815089049898 0.20622382450269727 0.028835355274185594 0.011290561980064763 0.33067255267570106 0.079204828545997849 -0.039961723597257033 0.11878100491909034 -0.023467767385724092 0.15009014367723583 -0.0085483428963468271 0.0068953280411143403 0.1697768805843512 0.061498147630373513 0.26348308837738282 0.048574380986247202 0.032083204674359989 0.058429959884382057 -0.0044025147845159858 0.074076831602946633 0.11448187528637586 -0.02988010957059118 0.097546865158589624 -0.010191222632435638
leaf_weight=3033580.2328697443 168158.09131669998 74127.944381833076 1162304.540719986 69074.020968675613 304172.39122092724 138850.93085885048 324487.47909992933 61049.134222507477 388556.58053708076 203786.6186016798 20411.332725524902 125546.28678536415 1116544.2441185713 103046.18563902378 405651.94509118795 185676.29605007172 547230.43200731277 714723.66511237621 136749.94010829926 111508.20549690723 39499.512548446655 157709.46745038033 422765.2894397974 285845.41682934761 507242.89869010448 304721.26512396336 183198.08922052383 796443.92950254679 205629.63737607002 272151.13737255335
leaf_count=3221690 96238 20967 1047864 9994 213696 57351 328519 10684 258573 157487 1348 59684 1104838 35825 371418 49363 458996 541095 28932 57224 4326 95458 273640 155300 411969 144762 61055 749917 84254 228741
internal_value=-0.000252234 0.0951499 -0.0255644 0.165502 0.000133213 0.0661285 -0.0427818 0.148319 0.019714 -0.0125279 0.250867 0.0498859 -0.0493378 0.0901782 -0.0276557 0.133715 -0.0177781 0.0117684 0.181026 0.0411689 0.235863 0.0345341 0.0373327 0.0647699 9.52437e-05 0.0801176 0.1219 -0.0334114 0.104636 -0.018137
internal_weight=1.25704e+07 2.63586e+06 9.93459e+06 769786 3.98573e+06 1.86607e+06 5.94886e+06 640801 1.56516e+06 2.42056e+06 128985 1.11382e+06 4.15012e+06 752248 1.79873e+06 443002 1.70953e+06 1.0189e+06 197799 702432 108574 546266 590923 411392 711030 443572 257326 1.12093e+06 308676 677803
internal_count=10341208 1150947 9190261 186669 3185138 964278 6005123 171001 1108822 2076316 15668 642086 4326528 322192 1678595 131385 1506860 754791 39616 427102 14320 354031 369878 214984 569456 202113 82022 1078436 120079 600159
is_linear=0
shrinkage=0.05


Tree=5
num_leaves=31
num_cat=0
split_feature=17 17 21 17 23 17 19 17 19 17 17 19 23 23 17 25 25 19 25 2 17 2 2 2 19 2 2 2 25 2
split_gain=1.05512e+07 1.90439e+06 1.45066e+06 380235 280754 276476 203641 103868 72219.9 62477 54289.9 51112.3 47069.2 46112 36163.6 34696.3 28393.6 22524.1 20684.9 20157.3 17606.6 17496.8 16561 15884.8 14402.4 13104.4 13055.1 12626.6 12571.1 11917.2
threshold=2.4150000000000005 9.5850000000000026 0.67500000000000016 24.585000000000004 4.6800000000000006 1.0000000180025095e-35 1.5000000000000002 48.250000000000007 3.5000000000000004 0.75000000000000011 0.25000000000000006 13.785000000000002 1.2650000000000003 1.9700000000000002 112.91500000000001 6.8100000000000014 0.41000000000000009 1.0000000180025095e-35 2.8550000000000004 2.5000000000000004 1.4150000000000003 2.5000000000000004 2.5000000000000004 2.5000000000000004 6.0700000000000012 2.5000000000000004 2.5000000000000004 2.5000000000000004 11.010000000000002 2.5000000000000004
decision_type=2 2 2 2 2 2 2 2 2 2 2 2 2 2 2 2 2 2 2 2 2 2 2 2 2 2 2 2 2 2
left_child=2 4 5 11 8 17 10 19 18 16 -4 28 23 25 -9 26 -7 -1 27 -5 -11 -13 -15 -12 -10 -8 -6 -2 -3 -14
right_child=1 3 6 7 15 9 13 14 24 20 12 21 29 22 -16 -17 -18 -19 -20 -21 -22 -23 -24 -25 -26 -27 -28 -29 -30 -31
leaf_value=-0.053718245361372589 0.038969251856261419 0.10062600799115742 -0.031312320349393012 0.19660620908643767 0.082022634587990292 -0.038392699074908485 0.016773807262720191 0.22414604146988149 0.052091502505358746 -0.02071793166194141 -0.0038509370069026317 0.15450032335228345 0.014688571616353334 0.037748729179109056 0.31148837864566736 0.091437578913403053 -0.026366640766628022 -0.04270969431473539 0.043884595258724513 0.1607337697598421 -0.00028742733401777089 0.12784130237315391 0.019543994068231024 -0.016044379851967331 0.073154074235106545 0.0022661276271691458 0.064404749290076002 0.022577766042466044 0.12070968242858081 -0.00042726403638631812
leaf_weight=2563945.6788271666 163896.09573411942 219336.39530742168 266264.1543982625 56455.617748260498 156898.27921783924 1415976.2921602726 223518.97111594677 65744.698175430298 433357.00148546696 520432.01840728521 373700.56886744499 91976.767310142517 188625.68160557747 189484.59730672836 14457.269845962524 323604.93993914127 751190.58059895039 567496.01941365004 274488.84036564827 127831.06832051277 132249.87173950672 186035.51150226593 366679.09445059299 936320.89387869835 99865.061230182648 512658.20254302025 318818.98382234573 414916.24190711975 120843.81029725075 422353.29181790352
leaf_count=2867185 96963 68688 259558 7802 63133 1437941 159094 6479 228195 475513 317305 19032 140217 117057 779 122084 719088 604136 155937 21418 108123 45853 251110 819247 44399 395655 147877 276341 32788 332211
internal_value=-0.000298151 0.0802372 -0.0265019 0.142223 0.0552064 -0.0414966 -0.000856062 0.192394 0.0416007 -0.0301398 -0.0101538 0.120758 -0.00722103 0.0148801 0.23989 0.0788072 -0.0342242 -0.0517232 0.0325801 0.171723 -0.0165782 0.136661 0.0257463 -0.012566 0.0560362 0.00667097 0.0702154 0.0272192 0.10776 0.0042394
internal_weight=1.24994e+07 3.06853e+06 9.4309e+06 882681 2.18585e+06 5.95129e+06 3.47961e+06 264489 1.38652e+06 2.81985e+06 2.18726e+06 618192 1.921e+06 1.29234e+06 80202 799322 2.16717e+06 3.13144e+06 853301 184287 652682 278012 556164 1.31002e+06 533222 736177 475717 578812 340180 610979
internal_count=10341208 1337768 9003440 202839 1134929 6211986 2791454 36478 801835 2740665 1868538 166361 1608980 922916 7258 333094 2157029 3471321 529241 29220 583636 64885 368167 1136552 272594 554749 211010 373304 101476 472428
is_linear=0
shrinkage=0.05


Tree=6
num_leaves=31
num_cat=0
split_feature=17 17 17 17 21 21 21 17 25 23 21 19 23 17 17 19 19 13 25 2 2 2 2 2 2 2 2 2 24 26
split_gain=9.23275e+06 1.61098e+06 1.28851e+06 358054 308304 212739 160324 96265.3 56295.8 51390.5 46802.8 40062.8 33276 32184.5 32019.6 28635.2 22650.9 17973.2 16545.5 15353.9 14580.7 14376.9 13112.8 13024.2 12991.5 11648.9 11622.7 10273.2 9574.18 9380.47
threshold=2.2500000000000004 8.2500000000000018 0.41500000000000009 22.085000000000004 1.175 3.8950000000000005 0.25000000000000006 47.085000000000008 0.81000000000000016 1.7900000000000003 12.825000000000001 3.0700000000000007 5.7350000000000003 112.91500000000001 1.0000000180025095e-35 0.50000000000000011 0.78500000000000003 31.500000000000004 2.6550000000000007 2.5000000000000004 2.5000000000000004 2.5000000000000004 2.5000000000000004 2.5000000000000004 3.5000000000000004 2.5000000000000004 2.5000000000000004 2.5000000000000004 3.7250000000000005 3.1450000000000005
decision_type=2 2 2 2 2 2 2 2 2 2 2 2 2 2 2 2 2 2 2 2 2 2 2 2 2 2 2 2 2 2
left_child=2 5 6 10 8 11 14 17 16 19 21 18 23 26 -1 -8 -4 -5 27 -6 -11 -3 -10 -7 -12 -13 -9 -2 -17 -22
right_child=1 3 4 7 9 12 15 13 22 20 24 25 -14 -15 -16 28 -18 -19 -20 -21 29 -23 -24 -25 -26 -27 -28 -29 -30 -31
leaf_value=-0.05281693551915026 0.03168960189047261 0.10428507463124877 -0.026544914053838149 0.13626146121620594 0.012616448215748814 0.066644165196452124 -0.036342114851721743 0.22268304718356907 0.0022067603368832434 0.031177274095093074 0.12763957996612776 0.055670888855303816 0.073714905748666973 0.2709939998277428 -0.040708485511812678 -0.02331230016098013 -0.013660022133002207 0.16466697450369755 0.036691374310167585 -0.0011357885180262996 0.012956590811552635 0.08539760057151341 -0.011110548655152836 0.050222316277479209 0.10648746826931968 0.038722245080736205 0.17979336807452129 0.016702886288844494 0.013901538378678892 0.034534179152111509
leaf_weight=2669133.6968445182 159463.89145445824 143365.74044239521 1174364.7918711901 162909.97620987892 289825.90485489368 174499.38093173504 885816.63990962505 22413.847403526306 259868.97851645947 229374.96050715446 136452.00677335262 145920.15918385983 431240.18802165985 15751.701490402222 686385.35488247871 584557.95887380838 480703.75311022997 84610.401822566986 236867.89299571514 677177.70800507069 395350.73401248455 338967.33450615406 640236.12731814384 391897.40327048302 155113.36406469345 332139.56297814846 53497.515715122223 404176.65181899071 17810.124336063862 57722.440771341324
leaf_count=3117335 96141 38280 1139209 26597 213066 73434 929583 1782 212849 142307 28778 70733 164627 779 731700 558592 429684 11406 136511 538338 277436 107475 551678 190073 37393 185242 5129 275032 13699 36320
internal_value=-0.000337129 0.0700506 -0.0267027 0.119346 -0.00645128 0.045945 -0.0442821 0.162181 -0.0173294 0.0104001 0.100572 0.0324425 0.0632497 0.205953 -0.0503401 -0.0306227 -0.0228026 0.145971 0.0256028 0.00298597 0.0209057 0.0910116 -0.00726571 0.0552817 0.116387 0.0438956 0.192457 0.0209429 -0.022212 0.0157056
internal_weight=1.24376e+07 3.38929e+06 9.04833e+06 1.11308e+06 4.20463e+06 2.27621e+06 4.8437e+06 339183 2.55517e+06 1.64945e+06 773898 1.27857e+06 997637 91663.1 3.35552e+06 1.48818e+06 1.65507e+06 247520 800508 967004 682448 482333 900105 566397 291565 478060 75911.4 563641 602368 453073
internal_count=10341208 1449412 8891796 257619 3540887 1191793 5350909 45693 2333420 1207467 211926 763659 428134 7690 3849035 1501874 1568893 38003 507684 751404 456063 145755 764527 263507 66171 255975 6911 371173 572291 313756
is_linear=0
shrinkage=0.05


Tree=7
num_leaves=31
num_cat=0
split_feature=17 17 17 21 21 21 21 21 17 25 25 19 19 19 17 11 19 23 2 11 25 2 2 2 21 23 2 2 17 2
split_gain=8.12815e+06 1.37863e+06 1.14187e+06 297758 247613 184098 162847 67135.7 55601.4 45142.2 44289.5 40620.7 34828 25759.2 25364 19448.3 18823.9 18688.2 16910.2 16523.7 15550.7 11440.8 11143.7 10743.3 10545.2 10332.1 10133.3 10089.5 8807.17 8247.68
threshold=2.0850000000000004 7.7500000000000009 0.41500000000000009 22.175000000000004 1.1050000000000002 3.8250000000000006 0.17500000000000002 58.035000000000004 14.915000000000001 0.79000000000000015 1.8100000000000003 2.7850000000000006 0.50000000000000011 5.9300000000000006 1.0000000180025095e-35 140.00000000000003 0.78500000000000003 9.7900000000000009 2.5000000000000004 34.500000000000007 2.4800000000000009 2.5000000000000004 2.5000000000000004 2.5000000000000004 1.0000000180025095e-35 0.68000000000000005 2.5000000000000004 2.5000000000000004 1.0000000180025095e-35 2.5000000000000004
decision_type=2 2 2 2 2 2 2 2 2 2 2 2 2 2 2 2 2 2 2 2 2 2 2 2 2 2 2 2 2 2
left_child=2 5 6 8 9 11 14 19 17 16 18 20 28 22 -1 -9 -4 -3 -6 -5 24 -13 -7 -11 -2 -14 -10 -12 -8 -26
right_child=1 3 4 7 10 13 12 15 26 23 27 21 25 -15 -16 -17 -18 -19 -20 -21 -22 -23 -24 -25 29 -27 -28 -29 -30 -31
leaf_value=-0.053093626436182588 0.046840420891678169 0.073820906518655305 -0.026279131261359102 0.12394572721491648 0.010952032104998432 0.059412764783635712 -0.042444958979533855 0.17987684920066696 0.12087894338032286 0.00066831233076284247 0.028863255684026826 0.048286628087036793 -0.028240820523546137 0.066149504542478255 -0.040676181012887801 0.25607861213897243 -0.013887361379013622 0.091164183241915553 -0.0024508138630085544 0.14973124418341141 0.031402820462635088 0.033369295624189235 0.045171635829041525 -0.011960719050398179 0.024693423876429851 -0.015414750705123834 0.10106266511783986 0.014396321482093397 -0.033336486013823323 0.011294499287472927
leaf_weight=2429193.9296089411 27414.62788438797 370115.30736303329 1106696.6183850169 157058.33272123337 341581.77936434746 200912.68301594257 445088.62326002121 51302.745784759521 91468.562957286835 237341.98247277737 178971.32435703278 185517.21479189396 338206.66635257006 378817.37492465973 495043.55238199234 10006.3277759552 423834.35188162327 267652.95247459412 756647.82089006901 102791.40932154655 250926.11059296131 418443.27643740177 434302.33979856968 579726.74625492096 160204.60117709637 293080.73613542318 218915.35385465622 369013.6714964509 657336.00205928087 405683.80142009258
leaf_count=2978798 16977 116542 1101243 24377 249377 81084 511555 3871 15102 196704 109711 89752 347357 140423 548087 436 385634 68813 604501 11660 145547 234781 203902 509155 98504 268999 43433 256346 696113 282424
internal_value=-0.000369566 0.0613122 -0.0269731 0.10364 -0.00735626 0.0394914 -0.0437929 0.14525 0.0895462 -0.0177817 0.00751102 0.0280509 -0.0316512 0.0558301 -0.0509915 0.192314 -0.0228476 0.0810994 0.00171787 0.134146 0.0209681 0.0379514 0.049676 -0.00829224 0.016555 -0.0222862 0.106902 0.0191212 -0.0370139 0.0150878
internal_weight=1.23833e+07 3.73153e+06 8.65176e+06 1.26931e+06 3.99381e+06 2.46222e+06 4.65795e+06 321159 948152 2.3476e+06 1.64621e+06 1.44819e+06 1.73371e+06 1.01403e+06 2.92424e+06 61309.1 1.53053e+06 637768 1.09823e+06 259850 844229 603960 635215 817069 593303 631287 310384 547985 1.10242e+06 565888
internal_count=10341208 1577628 8763580 284234 3412671 1293394 5350909 40344 243890 2192736 1219935 867985 1824024 425409 3526885 4307 1486877 185355 853878 36037 543452 324533 284986 705859 397905 616356 58535 366057 1207668 380928
is_linear=0
shrinkage=0.05


Tree=8
num_leaves=31
num_cat=0
split_feature=17 21 17 17 17 19 23 17 17 17 21 23 19 19 16 25 19 25 21 2 2 2 2 2 2 2 17 2 2 19
split_gain=7.18061e+06 1.10703e+06 1.0999e+06 241544 209434 159247 149137 65505.4 43034.4 41715.4 38801.6 37321.6 36799.4 34606.5 25294.2 22623 21590.3 19107.1 13271.3 13016.2 12373.4 11859.6 11310.6 10926.8 10486.9 10243.1 9774.75 9593.29 9243.34 9165.7
threshold=2.0850000000000004 0.53500000000000003 7.5850000000000009 21.085000000000004 1.0000000180025095e-35 1.2150000000000001 3.6800000000000002 41.585000000000008 0.75000000000000011 1.0000000180025095e-35 1.675 0.97000000000000008 2.9300000000000002 11.360000000000001 106.50000000000001 5.5200000000000005 1.0000000180025095e-35 0.39000000000000007 1.0000000180025095e-35 2.5000000000000004 2.5000000000000004 2.5000000000000004 2.5000000000000004 2.5000000000000004 2.5000000000000004 2.5000000000000004 0.25000000000000006 2.5000000000000004 2.5000000000000004 4.785000000000001
decision_type=2 2 2 2 2 2 2 2 2 2 2 2 2 2 2 2 2 2 2 2 2 2 2 2 2 2 2 2 2 2
left_child=1 4 6 13 16 9 12 21 17 -3 23 24 19 28 -9 25 -1 -6 -10 -2 -12 -5 -15 -7 -11 -8 -22 -13 -4 -14
right_child=2 5 3 7 8 10 15 14 18 11 20 27 29 22 -16 -17 -18 -19 -20 -21 26 -23 -24 -25 -26 -27 -28 -29 -30 -31
leaf_value=-0.053460458728939335 0.028963968173677558 -0.036860741825990799 0.079418644946417746 0.12462605032650483 -0.037488229909135688 0.0079792176760459261 0.053504081210623666 0.14216204666442508 0.0035343765582574157 -0.010317876446634332 0.024834759949895348 0.0049872384894631616 0.0322988128700024 0.099890720946555281 0.20075918095079853 0.059455541627825431 -0.041623857564773513 -0.026114998347498752 -0.019989945091983485 0.015626574055264273 -0.019437036713350394 0.10274506072905748 0.082597002546935513 -0.0043750770739500811 -0.020654021406504301 0.040012673510262581 0.012465269357069349 -0.0072614041862077514 0.064922555765490469 0.047523406510058236
leaf_weight=2208467.4270787835 256266.97479307652 188644.02374720573 155934.71731376648 89889.194189548492 1152966.794029355 259657.73954927921 210389.34749662876 114491.22106838226 72810.52302801609 343868.12147462368 233467.49497401714 231837.90538239479 427002.10443246365 141563.22108578682 21946.808312416077 418518.92740404606 466655.96362328529 543308.65655708313 339539.1105312705 639210.01989889145 25411.573946297169 199067.96123814583 284677.98582339287 576014.14256864786 856940.14841973782 424661.36884570122 435488.76987671852 514872.28389108181 373051.53807413578 128641.29744946957
leaf_count=2847368 146763 211490 39677 10704 1290355 195138 83614 9481 65818 318926 143913 183693 227345 26717 1073 152814 561029 564957 325081 418942 21612 29015 64456 473313 822228 196860 302083 436576 112822 57345
internal_value=-0.000396065 -0.026264 0.0558627 0.0916949 -0.0421073 -0.0055913 0.0361115 0.123034 -0.0303237 -0.0144105 0.00672167 -0.0122359 0.0257155 0.0777385 0.151588 0.0504303 -0.0513956 -0.0338454 -0.0158361 0.0194435 0.0154567 0.109552 0.0883406 -0.000536384 -0.0176941 0.0444823 0.0107063 -0.00345846 0.0691957 0.0358236
internal_weight=1.23353e+07 8.44995e+06 3.88531e+06 1.38062e+06 4.78375e+06 3.6662e+06 2.50469e+06 425395 2.10863e+06 2.13616e+06 1.53004e+06 1.94752e+06 1.45112e+06 955227 136438 1.05357e+06 2.67512e+06 1.69628e+06 412350 895477 694368 288957 426241 835672 1.20081e+06 635051 460900 746710 528986 555643
internal_count=10341208 8763580 1577628 293945 5654608 3108972 1283683 50273 2246211 1972913 1136059 1761423 850395 243672 10554 433288 3408397 1855312 390899 565705 467608 39719 91173 668451 1141154 280474 323695 620269 152499 284690
is_linear=0
shrinkage=0.05


Tree=9
num_leaves=31
num_cat=0
split_feature=17 17 21 17 17 21 21 13 25 17 17 19 19 23 25 19 12 25 17 17 11 25 2 2 21 13 2 21 20 2
split_gain=6.37338e+06 1.07916e+06 885462 214885 172102 159895 125789 53959.1 37401.3 37233.1 30873.6 30662.9 27733.1 26649.7 25448.4 19943.5 15123.7 14985.4 14101 13631.2 13508.2 13156.3 12290.5 11781.1 9481.31 9421.23 9231.26 9211.75 8629.06 7502.77
threshold=1.7500000000000002 6.7500000000000009 0.46500000000000002 20.750000000000004 1.0000000180025095e-35 3.0350000000000006 1.1050000000000002 57.500000000000007 9.8800000000000008 0.25000000000000006 0.75000000000000011 2.3600000000000008 0.64000000000000001 1.6200000000000003 4.9900000000000011 1.0000000180025095e-35 34.500000000000007 0.39000000000000007 136.75000000000003 1.0000000180025095e-35 9.5000000000000018 2.1000000000000001 3.5000000000000004 2.5000000000000004 1.0000000180025095e-35 17.500000000000004 2.5000000000000004 1.0000000180025095e-35 3.3950000000000005 2.5000000000000004
decision_type=2 2 2 2 2 2 2 2 2 2 2 2 2 2 2 2 2 2 2 2 2 2 2 2 2 2 2 2 2 2
left_child=2 5 4 8 15 11 12 16 20 -8 17 21 19 26 22 -1 -5 -6 -9 -4 -3 24 -7 -14 -2 -10 -11 -12 -15 -13
right_child=1 3 6 7 10 14 9 18 25 13 27 29 23 28 -16 -17 -18 -19 -20 -21 -22 -23 -24 -25 -26 -27 -28 -29 -30 -31
leaf_value=-0.053387199408161584 0.033691499131412089 0.054865734167888952 -0.038954099949842523 0.093754378678345032 -0.037257653118295271 0.042527427404390944 -0.022415656109765127 0.13660824496543417 0.073857774495236075 0.0067073374291035329 0.0004693095148604737 0.034661239783656615 -0.0038542232658245884 0.011211483188103777 0.05071120024934464 -0.041487676770352429 0.11499931548747103 -0.026100051116585577 0.19452189659157496 -0.02122342470487959 0.069551328262507817 0.021076732461759808 0.030735486628702336 -0.015250927729306611 0.0065423368191112278 0.088886178380842992 -0.0048519503574261944 -0.021007624812919165 0.034935719115879393 0.022528657653844122
leaf_weight=2094185.7911085486 33905.104003190994 422601.24195432663 125328.08872056007 265907.22631788254 1049805.0525886416 410217.06141245365 142661.94465214014 66739.842398166656 339206.65662431717 249492.37259095907 62932.062561810017 184412.2307267189 323984.45650595427 500011.03064024448 455276.238068223 423284.36854070425 122297.9064450264 421859.52109289169 12475.253293037415 802473.33416032791 248759.96699750423 268331.5048109293 478997.25112259388 755651.59917777777 624251.59247356653 150578.50158214569 561284.61873960495 241604.09353452921 41510.19158911705 412352.64852511883
leaf_count=2833475 22317 130217 150099 34736 1217754 179762 140603 4764 75984 187522 57695 93302 285282 344726 169517 529933 11962 452182 446 804232 63697 164245 236681 703690 446539 27985 464676 238268 24827 244090
internal_value=-0.000417282 0.0469902 -0.0277591 0.0794953 -0.0429781 0.0285308 -0.00910179 0.108121 0.0679719 0.00187851 -0.0310606 0.0174388 -0.0172789 0.00444144 0.0410976 -0.0513864 0.100447 -0.0340593 0.145729 -0.0236185 0.0603072 0.0117454 0.0361754 -0.0118309 0.00794093 0.0784781 -0.00129493 -0.0165694 0.0130301 0.0262779
internal_weight=1.22924e+07 4.49631e+06 7.79607e+06 1.62857e+06 4.29367e+06 2.86774e+06 3.5024e+06 467420 1.16115e+06 1.49496e+06 1.7762e+06 1.52325e+06 2.00744e+06 1.3523e+06 1.34449e+06 2.51747e+06 388205 1.47166e+06 79215.1 927801 671361 926488 889214 1.07964e+06 658157 489785 810777 304536 541521 596765
internal_count=10341208 1906244 8434964 349791 5329307 1556453 3105657 51908 297883 1162354 1965899 970493 1943303 1021751 585960 3363408 46698 1669936 5210 954331 193914 633101 416443 988972 468856 103969 652198 295963 369553 337392
is_linear=0
shrinkage=0.05


end of trees

feature_importances:
rolling_mean_1_7=90
wday=77
rolling_mean_14_28=38
rolling_mean_7_14=34
rolling_mean_28_45=25
rolling_mean_45_90=22
lag_7=4
lag_28=4
lag_14=2
lag_365=1
rolling_std_7_14=1
rolling_std_28_45=1
rolling_std_45_90=1

parameters:
[boosting: gbdt]
[objective: tweedie]
[metric: rmse]
[tree_learner: serial]
[device_type: cpu]
[data_sample_strategy: bagging]
[data: ]
[valid: ]
[num_iterations: 10]
[learning_rate: 0.05]
[num_leaves: 31]
[num_threads: 0]
[seed: 0]
[deterministic: 0]
[force_col_wise: 0]
[force_row_wise: 0]
[histogram_pool_size: -1]
[max_depth: -1]
[min_data_in_leaf: 20]
[min_sum_hessian_in_leaf: 0.001]
[bagging_fraction: 1]
[pos_bagging_fraction: 1]
[neg_bagging_fraction: 1]
[bagging_freq: 0]
[bagging_seed: 3]
[bagging_by_query: 0]
[feature_fraction: 1]
[feature_fraction_bynode: 1]
[feature_fraction_seed: 2]
[extra_trees: 0]
[extra_seed: 6]
[early_stopping_round: 0]
[early_stopping_min_delta: 0]
[first_metric_only: 0]
[max_delta_step: 0]
[lambda_l1: 0]
[lambda_l2: 0]
[linear_lambda: 0]
[min_gain_to_split: 0]
[drop_rate: 0.1]
[max_drop: 50]
[skip_drop: 0.5]
[xgboost_dart_mode: 0]
[uniform_drop: 0]
[drop_seed: 4]
[top_rate: 0.2]
[other_rate: 0.1]
[min_data_per_group: 100]
[max_cat_threshold: 32]
[cat_l2: 10]
[cat_smooth: 10]
[max_cat_to_onehot: 4]
[top_k: 20]
[monotone_constraints: ]
[monotone_constraints_method: basic]
[monotone_penalty: 0]
[feature_contri: ]
[forcedsplits_filename: ]
[refit_decay_rate: 0.9]
[cegb_tradeoff: 1]
[cegb_penalty_split: 0]
[cegb_penalty_feature_lazy: ]
[cegb_penalty_feature_coupled: ]
[path_smooth: 0]
[interaction_constraints: ]
[verbosity: -1]
[saved_feature_importance_type: 0]
[use_quantized_grad: 0]
[num_grad_quant_bins: 4]
[quant_train_renew_leaf: 0]
[stochastic_rounding: 1]
[linear_tree: 0]
[max_bin: 255]
[max_bin_by_feature: ]
[min_data_in_bin: 3]
[bin_construct_sample_cnt: 200000]
[data_random_seed: 1]
[is_enable_sparse: 1]
[enable_bundle: 1]
[use_missing: 1]
[zero_as_missing: 0]
[feature_pre_filter: 1]
[pre_partition: 0]
[two_round: 0]
[header: 0]
[label_column: ]
[weight_column: ]
[group_column: ]
[ignore_column: ]
[categorical_feature: ]
[forcedbins_filename: ]
[precise_float_parser: 0]
[parser_config_file: ]
[objective_seed: 5]
[num_class: 1]
[is_unbalance: 0]
[scale_pos_weight: 1]
[sigmoid: 1]
[boost_from_average: 1]
[reg_sqrt: 0]
[alpha: 0.9]
[fair_c: 1]
[poisson_max_delta_step: 0.7]
[tweedie_variance_power: 1.1]
[lambdarank_truncation_level: 30]
[lambdarank_norm: 1]
[label_gain: ]
[lambdarank_position_bias_regularization: 0]
[eval_at: ]
[multi_error_top_k: 1]
[auc_mu_weights: ]
[num_machines: 1]
[local_listen_port: 12400]
[time_out: 120]
[machine_list_filename: ]
[machines: ]
[gpu_platform_id: -1]
[gpu_device_id: -1]
[gpu_use_dp: 0]
[num_gpu: 1]

end of parameters

pandas_categorical:[]
